booster[0]:
0:[f5<37.7722] yes=1,no=2,missing=1
	1:[f3<12865.5] yes=3,no=4,missing=3
		3:leaf=19.2499
		4:leaf=20.702
	2:[f2<8.5] yes=5,no=6,missing=5
		5:leaf=18.4916
		6:leaf=16.898
booster[1]:
0:[f0<93199.5] yes=1,no=2,missing=1
	1:[f4<-122.424] yes=3,no=4,missing=3
		3:leaf=1.47206
		4:leaf=0.444362
	2:[f3<12809.5] yes=5,no=6,missing=5
		5:leaf=-0.416987
		6:leaf=0.235637
booster[2]:
0:[f0<237442] yes=1,no=2,missing=1
	1:[f4<-122.478] yes=3,no=4,missing=3
		3:leaf=0.997014
		4:leaf=-0.198803
	2:[f2<8.5] yes=5,no=6,missing=5
		5:leaf=0.143598
		6:leaf=1.00792
booster[3]:
0:[f2<2.5] yes=1,no=2,missing=1
	1:[f2<1.5] yes=3,no=4,missing=4
		3:leaf=-0.152832
		4:leaf=0.433001
	2:[f5<37.7717] yes=5,no=6,missing=5
		5:leaf=-0.321526
		6:leaf=0.0336908
booster[4]:
0:[f4<-122.459] yes=1,no=2,missing=1
	1:[f5<37.7726] yes=3,no=4,missing=3
		3:leaf=0.187526
		4:leaf=0.890508
	2:[f3<12778.5] yes=5,no=6,missing=5
		5:leaf=-0.136319
		6:leaf=0.226162
booster[5]:
0:[f3<40.5] yes=1,no=2,missing=1
	1:[f0<1289] yes=3,no=4,missing=4
		3:leaf=11.5681
		4:leaf=-1.06788
	2:[f0<152697] yes=5,no=6,missing=6
		5:leaf=0.114772
		6:leaf=-0.0618432
booster[6]:
0:[f3<6170.5] yes=1,no=2,missing=1
	1:[f5<37.7779] yes=3,no=4,missing=3
		3:leaf=0.376606
		4:leaf=-0.269767
	2:[f5<37.7722] yes=5,no=6,missing=5
		5:leaf=-0.233322
		6:leaf=0.0608262
booster[7]:
0:[f4<-122.395] yes=1,no=2,missing=1
	1:[f5<37.7823] yes=3,no=4,missing=3
		3:leaf=0.0912042
		4:leaf=-0.0971015
	2:[f5<37.7446] yes=5,no=6,missing=5
		5:leaf=-0.578003
		6:leaf=0.188634
booster[8]:
0:[f4<-122.418] yes=1,no=2,missing=1
	1:[f3<19406.5] yes=3,no=4,missing=3
		3:leaf=-0.154885
		4:leaf=0.509521
	2:[f5<37.7803] yes=5,no=6,missing=5
		5:leaf=0.294886
		6:leaf=-0.132481
booster[9]:
0:[f5<37.7876] yes=1,no=2,missing=1
	1:[f3<16387.5] yes=3,no=4,missing=3
		3:leaf=0.0299893
		4:leaf=-0.464828
	2:[f3<13843.5] yes=5,no=6,missing=5
		5:leaf=-0.0122937
		6:leaf=1.03632
